#include "MicroFlow.h"

int topology[] = {1, 64, 32, 16, 8, 1};

float Day = 256;
float number_of_fishes = 100;
float grams_per_revolution = 2.5;

// Mapping for blind feed for the first 10 days
float blind_feed[10] = {
    0.15, 0.1681111111111111, 0.18577777777777776, 0.20299999999999999, 
    0.21977777777777777, 0.23611111111111108, 0.252, 0.26744444444444443, 
    0.2824444444444444, 0.29700000000000004
};



double weights[] = {0.23902185, 0.12134041, -0.17566255, -0.120934546, -0.013380587, -0.24024978, -0.202155, -0.0241158, -0.22183701, -0.08484866, -0.018895417, 0.13942216, 0.18382098, -0.0855736, -0.040615648, 0.11307437, -0.13012606, 0.030089654, -0.06763275, -0.019797502, -0.22419004, 0.16509555, -0.1367462, -0.016016172, -0.003064068, 0.2025042, -0.075272985, -0.25344312, 0.11512432, -0.07859631, 0.16136853, 0.26895332, 0.25451156, -0.27527753, -0.1458457, 0.18568693, -0.27032232, -0.24171959, 0.33795783, -0.18632111, -0.047632903, -0.06927693, -0.06865658, -0.058809016, 0.11546136, -0.095083684, -0.044649485, 0.14954461, 0.17409173, -0.22802608, -0.14177562, -0.08067028, -0.017324856, -0.027734935, 0.03968524, 0.10201082, -0.043342173, -0.15619814, -0.1488829, -0.21996501, 0.21887892, 0.11331125, -0.07565926, 0.32276502, -0.11406106, -0.0068988204, -0.060899377, -0.17644799, 0.11376826, 0.1257956, 0.15633649, -0.13081193, -0.13683757, 0.010487846, 0.0013523493, -0.08155489, -0.0053239176, -0.12339426, -0.21637738, 0.13906108, 0.061431825, -0.21366481, -0.21269129, -0.20329584, -0.28385562, 0.1533789, -0.25655746, -0.1164721, 0.12857567, -0.14979476, -0.18278459, -0.18486233, -0.09490609, 0.02696327, -0.090458214, 0.11556752, 0.153324, 0.2467472, -6.735325e-05, 0.0922392, 0.19738, -0.118323974, 0.13346207, 0.0018001199, -0.21560849, -0.09251936, -0.24224553, 0.14216673, -0.13241448, 0.14803533, 0.09170848, -0.013852807, 0.14542985, -0.06344489, -0.057825834, 0.10049364, -0.097269036, 0.15584588, 0.12428716, 0.044779304, -0.11447275, 0.0117647275, 0.052237727, 0.04274422, -0.07625681, 0.12008846, 0.0016461015, 0.21001025, 0.22930872, 0.14921784, 0.016958535, 0.044626474, 0.20136756, 0.056100428, -0.07776481, 0.17122209, 0.2133593, -0.07153493, 0.17005497, -0.0043881536, -0.042093813, -0.24329418, 0.20217472, 0.14652574, 0.14370668, -0.070467055, -0.23872048, -0.046738327, 0.08427751, 0.09481901, -0.085868, 0.19592655, -0.05850172, 0.14357716, 0.16757208, 0.12969464, -0.05090493, 0.18895459, 0.01864487, 0.14430714, 0.059476912, -0.24430329, -0.034804642, -0.14529729, -0.18088716, 0.11336315, -0.14736968, -0.15993512, -0.19816887, -0.18316811, 0.15250403, 0.23054934, 0.19027883, -0.18205756, 0.0070440173, 0.008009315, -0.24694681, 0.04428464, -0.09015858, -0.20794266, 0.077457905, 0.10496956, -0.11039841, -0.21015358, 0.07690847, 0.15897125, -0.20055813, -0.11435616, -0.12216252, -0.01535356, 0.16101748, 0.14899582, -0.22022295, 0.116056204, 0.12369305, 0.070343494, 0.13609052, 0.03378284, 0.05712104, -0.110159814, -0.10861224, -0.17563522, -0.08692473, 0.13676679, -0.022138894, 0.11282903, -0.22850716, -0.23723483, -0.045703113, -0.053414285, -0.11389369, -0.111384034, 0.117580116, 0.014167905, 0.05385834, -0.16685253, -0.05005181, -0.0155700445, 0.04989034, -0.13142931, 0.017534316, -0.036004543, -0.14089525, 0.055622578, 0.14721692, 0.099243045, 0.20818108, -0.08753812, -0.22800255, 0.1343041, 0.19144017, 0.24688965, 0.17876148, -0.003430128, -0.040700495, -0.11557275, -0.19462425, 0.032589376, -0.12854671, 0.02002734, 0.12207949, 0.18084842, -0.12669337, 0.18240285, 0.18881875, -0.028808653, 0.113105655, 0.08003056, -0.20112067, -0.019786775, -0.09414625, 0.14176637, 0.1591698, 0.19251788, 0.22196996, -0.100649655, 0.13359237, 0.08320105, 0.18188876, 0.15391725, 0.1738702, -0.21481448, -0.15935981, 0.04708582, -0.09270918, -0.051427245, -0.038134694, 0.15639907, -0.12536377, 0.07546502, 0.24300206, 0.19737059, -0.06857544, 0.235708, -0.06301212, 0.05633551, 0.119194984, 0.24491084, 0.12224871, 0.20503074, 0.13184452, 0.124973655, -0.12313545, 0.097953916, 0.06332338, 0.060700953, -0.08394909, -0.051287293, 0.19395292, 0.16024762, 0.08219266, 0.081638455, 0.19392323, -0.0066196322, -0.19359767, 0.035242915, -0.037418723, -0.22743678, 0.07109779, -0.22966266, -0.14245933, -0.031705737, -0.21697187, -0.22704238, -0.048878133, 0.070417345, 0.14749455, -0.099318504, 0.11846763, -0.23577487, -0.13462102, 0.11361909, 0.22307265, -0.24955332, -0.19042122, 0.08316791, -0.24581236, 0.034073114, -0.033589065, -0.1225189, -0.1475476, 0.17848182, 0.032227516, -0.18663096, 0.024625301, -0.058651567, 0.17613518, 0.070592225, -0.0934757, -0.19404912, 0.21866012, -0.16696656, 0.002902925, 0.24621159, 0.041291237, -0.061388552, 0.16681767, 0.028836727, 0.0028980374, -0.14860928, 0.122375906, 0.17391086, 0.09515995, -0.043167472, -0.06661415, -0.07766318, -0.22008204, 0.123211145, 0.05626905, -0.21657753, 0.12366706, 0.21665925, -0.014952362, 0.19308251, 0.1176489, 0.16988117, 0.22001171, 0.08619869, -0.13263094, -0.23936832, 0.09910494, -0.05821693, -0.22678268, -0.040064394, 0.08338541, 0.13347536, -0.065244436, -0.097908735, -0.1272276, 0.03310138, 0.17604136, -0.12398523, 0.10462952, -0.18696374, 0.1826191, 0.02204436, -0.1901446, -0.051355302, -0.09222919, -0.12388539, -0.10111421, 0.047362328, -0.18607348, -0.034637094, 0.037295043, -0.22845298, -0.007065356, -0.15117979, 0.066040695, 0.12810385, 0.019325972, -0.13042367, -0.05456847, -0.036231518, -0.06460625, -0.09664178, 0.07837063, 0.21972954, 0.06342667, 0.23867029, 0.16925824, -0.044657886, -0.09164244, 0.12469053, -0.044054627, -0.2032435, -0.10096151, 0.08692181, 0.1318093, 0.018178523, 0.2471993, -0.20421219, 0.21797007, 0.0061271787, -0.23523617, -0.0430153, -0.095183834, 0.007217884, 0.14282846, 0.10198259, 0.12713064, -0.08641819, -0.012329344, 0.10008156, -0.09472768, -0.038810402, 0.1404243, -0.059473634, 0.16755043, -0.09297897, 0.04297787, 0.017460098, 0.12052721, 0.13873814, 0.038442064, 0.13536845, 0.10929207, -0.12758042, -0.07641508, -0.15643427, -0.1521426, -0.18206407, -0.28284627, -0.21125808, -0.16028321, -1.6860848e-05, -0.12977427, 0.0043439064, 0.12591575, 0.06699228, -0.21144718, -0.14459884, 0.09745869, -0.15356031, 0.107975185, -0.018869936, -0.26522842, 0.10458774, -0.14980198, -0.18944424, -0.05069257, -0.17474099, -0.23890305, 0.1678228, -0.21766901, 0.043815073, -0.059073403, -0.104220256, 0.15699393, -0.046805736, 0.031836137, -0.060837656, 0.007817825, -0.23715034, 0.083872676, 0.044806097, 0.15339363, -0.14751041, -0.16417992, 0.22784212, -0.07913846, 0.20196575, -0.031928062, 0.21870154, 0.039323986, -0.018937707, -0.09913379, -0.16873264, -0.098911285, -0.115829945, 0.013618112, -0.084587574, 0.03115648, -0.15456259, 0.18709385, -0.02433467, 0.249475, -0.1763379, -0.22641063, 0.1756025, 0.13418299, -0.23166078, 0.07534748, 0.0073723793, 0.24035186, -0.08086473, 0.01670909, 0.08791196, 0.19208634, -0.13426095, 0.035672665, 0.14267749, -0.11236864, -0.017961025, -0.10419619, -0.054923356, -0.1353584, -0.17244285, -0.1844055, -0.06563854, 0.19060057, 0.041697085, 0.11961013, 0.00831449, 0.14919305, -0.080943465, -0.20706314, -0.14566624, 0.026485145, 0.055797815, -0.013749003, 0.21794993, -0.07300466, 0.105255306, -0.11561924, -0.21545649, 0.19460154, -0.026899576, 0.24248624, 0.095972955, 0.028572857, -0.18937016, 0.16575772, 0.14696217, -0.055274423, -0.21087152, 0.1284917, 0.21591163, 0.010465952, -0.23247324, 0.15173367, -0.19346422, -0.04666519, -0.23801139, 0.18216333, 0.05854374, -0.08657034, 0.11741383, -0.07894367, -0.16140084, 0.022324622, 0.054300196, -0.14671887, 0.035399657, -0.038110945, -0.24038236, -0.077129796, -0.07552341, -0.112842724, 0.18180642, -0.25691605, 0.12150147, -0.11786771, -0.28868124, 0.0013549328, -0.010422611, -0.13477427, 0.24250221, -0.18136019, 0.20548737, 0.024029851, -0.1049149, -0.0106160045, -0.22845906, -0.14166969, -0.13182008, -0.19080645, -0.19160455, -0.1566329, 0.16710532, 0.091995955, -0.06978673, -0.027347565, -0.1900065, -0.16305363, 0.013387978, -0.03621131, -0.24360806, 0.21463907, 0.004811108, 0.21505928, 0.06124419, -0.061349154, 0.2294184, -0.19173366, 0.06629431, -0.015874147, -0.09494728, -0.16616298, -0.17497987, 0.059421122, 0.11046344, 0.120652996, -0.2511188, -0.044467624, 0.17143273, 0.038636256, 0.11912416, 0.17884491, 0.07773894, -0.17046519, 0.08255506, 0.20284069, 0.04609043, 0.2455188, -0.15186611, -0.08632965, -0.1763509, -0.16873854, 0.014499503, -0.26615855, -0.11952791, -0.13965014, 0.004983538, 0.022543605, 0.24378158, -0.10931152, 0.08107951, -0.20363313, -0.016224844, 0.24989235, 0.110924065, 0.010193765, -0.20783466, 0.06402218, -0.07440591, -0.002997756, -0.24541634, 0.23649085, -0.046088338, -0.10867494, 0.10236132, 0.19636548, -0.03939593, 0.085562766, -0.18471086, -0.040766537, 0.18930364, -0.13077027, 0.20771009, 0.11621499, 0.078579366, -0.13852477, -0.120539606, 0.077506304, -0.23394555, 0.124219716, 0.021690011, 0.08276349, 0.1985392, -0.059176266, 0.19371593, 0.057752475, -0.001292944, 0.03799963, -0.04710132, 0.30770493, -0.22765055, -0.21595582, -0.07990843, -0.037054952, -0.2219041, 0.049095165, 0.041555822, -0.19706684, 0.18113604, -0.044635892, -0.09861557, -0.080584824, -0.22684081, 0.1847682, 0.16958377, 0.04972013, -0.26402763, -0.14185691, 0.09929659, -0.0015122832, 0.05245532, 0.04429458, 0.13987738, -0.08718526, -0.31664643, 0.17666358, -0.14109382, 0.084921, 0.12064016, -0.15595454, 0.19047207, -0.003531754, 0.14583355, -0.23626184, 0.0041918755, 0.0031063557, -0.14895785, 0.17212778, -0.09891522, -0.025184155, -0.16420066, -0.20690471, -0.12068772, 0.03104335, 0.21675491, -0.08828604, -0.17998415, -0.17512125, 0.043459237, 0.22124714, 0.14166623, 0.114524305, 0.12601244, 0.08467406, -0.047210038, -0.15106761, 0.11678237, -0.069096446, 0.22377998, -0.16330911, 0.04905188, 0.0658766, -0.24677664, -0.009141979, -0.20163345, -0.11608498, -0.23957425, -0.08949963, -0.13231345, 0.07285142, 0.13668036, -0.057732448, -0.07695001, 0.07925093, -0.07416858, 0.010235906, -0.11199276, 0.1806569, -0.14250478, 0.056168232, 0.062907055, 0.066402294, 0.18771188, 0.15517464, 0.120279364, 0.1525662, -0.1178933, 0.15493119, -0.096442185, 0.16435397, 0.18978213, -0.14062321, 0.21497434, 0.15005904, -0.08396685, -0.1342017, -8.940697e-05, -0.04078406, -0.1228407, 0.073597014, -0.24871236, 0.094536304, -0.21257818, -0.17222697, 0.14080906, 0.092045784, 0.16167206, 0.018604577, -0.22743565, 0.18539828, -0.07638824, 0.06288618, 0.09533113, -0.061263263, 0.21800405, 0.009110451, 0.24569887, -0.021458507, 0.21807218, 0.0415349, 0.2352534, 0.20434856, -0.030287683, 0.091396585, -0.14012325, -0.029543042, -0.04985869, 0.14580981, 0.07902561, 0.016045896, 0.2287103, -0.2270134, 0.07238327, 0.110680774, -0.054998517, 0.09677744, 0.16688654, -0.23929584, -0.08600309, 0.07146579, 0.09420035, -0.13158745, 0.07205475, -0.05447815, 0.00645795, 0.12056488, 0.02359, -0.29406202, 0.13423496, -0.17351599, 0.24725363, -0.23075706, -0.027442193, 0.1317153, -0.1545292, -0.23705103, -0.022231042, -0.19689548, -0.048708737, 0.26259953, -0.03636361, 0.22131748, 0.15143496, 0.060589626, 0.19660443, -0.043569136, -0.1909231, -0.22379792, -0.12843919, 0.18231964, 0.15337078, 0.06937128, -0.10256569, -0.19996953, -0.06370701, -0.026991472, -0.10093612, 0.115947835, -0.1794528, -0.0942935, 0.07344509, -0.10611278, 0.16994353, 0.054159164, -0.30740243, -0.18388027, 0.16251023, -0.17367502, 0.057289243, 0.10295153, 0.19132376, 0.2870305, 0.10470521, 0.057340637, -0.15514928, -0.17678411, 0.19232175, -0.035281815, 0.026111603, -0.26977727, 0.07551655, -0.03310436, 0.029483158, -0.21254694, -0.17432936, -0.021359917, 0.07642343, 0.18275622, 0.03409865, -0.28178743, 0.010917887, -0.048903048, 0.049848486, 0.17071389, -0.023139864, -0.058623195, -0.27127835, -0.14562416, 0.09516838, -0.17162646, -0.21865988, 0.2063303, -0.11885637, -0.15377218, -0.15117596, 0.07643529, 0.20801872, 0.05115562, 0.19185713, -0.28101408, -0.16497302, -0.08072257, -0.30324897, 0.16355205, 0.19562104, -0.22950435, 0.11474358, -0.24553478, 0.15914863, 0.03313787, 0.0722203, -0.060759842, -0.22817603, -0.1341728, 0.106621176, 0.009139472, 0.24117732, -0.22424442, -0.26739696, 0.11249262, 0.17482412, -0.124975145, 0.19329476, -0.15295261, 0.044472158, 0.13953042, -0.22369635, -0.10018498, -0.06807238, 0.18279737, 0.06813949, -0.16641432, -0.022650838, 0.23203069, 0.06678176, 0.20779139, 0.122887194, 0.244228, 0.17226344, 0.14440191, -0.03504491, -0.1213792, -0.101127684, -0.057662666, 0.11327767, 0.029736102, -0.15713578, -0.17814219, 0.14018583, -0.08606255, 0.100034475, 0.21128714, 0.17848247, -0.055592414, -0.15781939, 0.13776022, 0.123416245, -0.07009143, 0.08861202, -0.3044013, 0.102813065, -0.16088182, 0.12188085, -0.07387011, -0.040718675, -0.20870201, -0.20188463, -0.2461546, 0.16827036, 0.18308032, 0.10396441, -0.16620609, -0.29548317, -0.20320094, -0.05555137, -0.29509422, -0.030414654, -0.19956583, 0.16153161, -0.0600064, 0.20799828, -0.16677803, -0.1811601, 0.24851453, -0.16949578, 0.11625885, -0.04146552, -0.22015935, -0.0835132, -0.1374064, 0.08431106, 0.1201424, -0.24519879, -0.0605075, -0.0433124, 0.107326776, -0.032349765, -0.05515212, -0.30287892, -0.18735719, 0.05376191, -0.09741163, 0.039766885, -0.21328086, 0.044914752, 0.10418016, 0.15093942, 0.069494486, 0.11640962, 0.078843266, 0.04252976, -0.2768438, -0.094561756, -0.036684573, 0.13211733, -0.1318407, 0.08949268, 0.08901972, 0.12269604, 0.014337778, -0.13472092, 0.032591637, -0.04212733, 0.034142893, -0.11656219, -0.10546188, 0.15472867, -0.2793806, -0.23323488, -0.28922015, -0.26654118, -0.13555616, 0.13995233, -0.07530093, -0.2407927, 0.123277575, -0.0029863007, 0.16471957, 0.19854057, -0.2927749, -0.17337246, 0.114896074, -0.15202901, -0.050702192, -0.09087528, -0.043493032, -0.2451125, -0.23365176, -0.12253716, -0.21527126, 0.10957593, -0.10107976, -0.19555873, 0.19026406, -0.1138786, 0.07659851, -0.031398654, 0.18394832, -0.047467597, -0.17187339, -0.21853977, -0.28229928, -0.31710613, -0.1455257, 0.08236468, -0.23513132, -0.111357555, -0.09842074, 0.080099665, -0.25648284, -0.07086288, -0.036415674, 0.02028424, 0.061517235, -0.0046419054, 0.14822878, 0.018898832, -0.019486487, -0.1330673, -0.20435542, -0.16488032, 0.12775634, -0.13159215, -0.22597724, 0.21801805, 0.27682498, 0.044481035, 0.17452818, -0.19551408, -0.2959635, 0.09235027, 0.17855822, -0.21223235, 0.094537064, -0.03252589, -0.100856304, -0.059637513, 0.19837874, -0.16359062, -0.18840928, -0.00804919, -0.13614146, -0.20667517, 0.1840527, 0.026091516, -0.24968542, -0.28723085, 0.07596299, 0.18260051, -0.052936196, -0.07296895, 0.10635036, 0.055620167, -0.20900285, -0.068006456, -0.1612745, 0.16905475, -0.10531032, -0.043505013, -0.11834699, -0.19998121, -0.026959121, -0.22800982, 0.11031127, 0.12736452, -0.08080846, -0.10869247, -0.19094443, 0.032325327, -0.12307036, -0.09957683, 0.16606998, 0.10491699, -0.04907739, -0.2497822, 0.04428637, 0.0020686388, -0.16616821, 0.20710903, -0.033672035, 0.22935879, -0.20178342, 0.076786935, -0.108107805, 0.023358047, -0.0370692, -0.23620623, -0.21588904, -0.11058265, 0.001020968, 0.122618675, 0.13410997, -0.087510645, -0.16440046, 0.17892593, -0.08975899, 0.039093554, -0.17927217, 0.11715615, -0.15876842, -0.21344274, -0.032915235, 0.16126448, -0.15343463, -0.09064978, -0.08371884, -0.13634473, 0.011628151, 0.20924532, 0.052077472, -0.20069498, 0.14160585, 0.22970921, 0.05205089, -0.04898846, -0.06393641, -0.18337333, -0.1651252, -0.21863079, -0.23457354, -0.21902591, -0.10855822, 0.106640585, -0.22390777, 0.1382888, 0.053381328, 0.2113781, 0.11993501, -0.13452142, -0.085771225, -0.02247418, 0.0017946362, 0.07491172, 0.1531505, 0.18811698, 0.12606813, 0.17721498, -0.19989844, -0.28060728, -0.0849023, 0.094707, -0.296284, -0.20448156, 0.15908065, -0.10678562, -0.15337205, -0.3048301, -0.14858043, -0.05075807, 0.10835874, -0.17940658, 0.034503996, -0.18696839, 0.06471497, -0.11367595, 0.107022226, -0.1963914, 0.23685557, -0.09933275, 0.24640661, -0.059800863, 0.24602205, -0.025829256, -0.21901298, 0.2484082, -0.066449285, -0.121107996, 0.044041693, -0.13680792, -0.22044504, -0.04460734, -0.05809188, 0.055275798, -0.032736063, -0.0061036944, -0.14969248, -0.21417236, -0.03732699, -0.12181944, 0.16733742, -0.1450358, 0.10543609, -0.0034694076, -0.17031884, 0.24748152, 0.24483395, 0.22068244, -0.033163726, -0.18148613, -0.06496036, 0.051945627, 0.04542035, -0.24332088, 0.027383089, -0.13413984, -0.21145952, -0.17565364, -0.22636968, -0.051586807, -0.091334164, 0.040246606, 0.2015568, -0.09723061, 0.16311914, 0.24617207, -0.19814265, -0.18144447, 0.16467494, 0.104243636, 0.12911224, -0.23348284, 0.19775808, -0.18332106, -0.29324856, -0.19247967, -0.14913243, -0.21567148, 0.11980955, -0.09513241, -0.032782856, -0.09256512, 0.045308284, 0.1108664, 0.12709266, -0.19239008, 0.1820714, -0.013406414, -0.001190126, -0.08161603, -0.19739616, 0.07323576, -0.11555944, -0.14148669, -0.17579047, 0.14099231, -0.0118204, 0.122297704, -0.29603413, 0.026248598, -0.28219712, 0.22130275, 0.12360811, -0.17637569, -0.027286768, 0.22552414, -0.04177183, -0.058525324, 0.14023226, 0.14391017, -0.01745373, 0.21517259, -0.19613385, -0.079809904, -0.24324411, 0.18477768, -0.1712001, -0.075048566, -0.04409051, -0.031538546, -0.07048035, 0.13323277, -0.16687232, -0.22248101, -0.09071392, 0.14862567, -0.17419225, -0.1402551, -0.19146585, -0.06731993, 0.117509305, 0.0521639, 0.13769758, -0.17113572, 0.058145583, -0.20111042, -0.15936321, -0.1751234, 0.07330394, -0.094486654, 0.18210018, -0.07559359, -0.16260856, 0.13611138, -0.24433595, -0.08901167, 0.23292357, 0.042536616, -0.20470685, 0.18852079, -0.015849948, -0.11316633, 0.1813854, 0.1778034, -0.0045626163, -0.20532548, -0.033913136, 0.08631039, 0.021252275, -0.05207014, -0.18818337, -0.06907815, 0.21728474, -0.18912083, 0.10635275, -0.007575929, 0.13951725, 0.23818618, 0.10681802, 0.06927264, 0.1187827, 0.18177539, -0.18164867, 0.13900423, -0.079808235, 0.027335227, -0.15035981, -0.19187993, -0.0043099523, 0.1545229, 0.17938036, 0.076915145, 0.013818443, 0.08897978, -0.17682397, -0.005936384, -0.23984385, 0.23402357, 0.14037704, -0.09832233, 0.1288932, 0.113931775, -0.040507734, 0.21589428, -0.21017522, -0.16422701, 0.08752817, 0.02331084, -0.11431408, 0.15297908, -0.22854137, -0.0405643, -0.026841998, 0.23247439, 0.1275422, 0.2338283, -0.049410224, -0.2398119, 0.119200766, -0.09030825, 0.089975655, 0.04287821, -0.20894527, -0.018368602, -0.010905862, -0.0910635, 0.054873884, -0.13461804, 0.083590746, -0.008724868, 0.18310434, 0.11002773, -0.117283165, -0.22349638, -0.13372093, -0.09798455, -0.12952578, 0.17582875, -0.124336064, -0.0015509725, 0.0125537515, -0.13915944, 0.16045362, 0.0014554858, -0.18663198, -0.19758332, -0.13619304, -0.18779933, -0.17025204, -0.09395274, 0.019541759, -0.18962657, -0.012977593, -0.12590104, 0.089366615, -0.013878107, 0.1486122, -0.029953053, 0.19658571, 0.06635845, -0.21960974, 0.12772988, -0.22652334, -0.16277458, 0.22205839, 0.0048783664, -0.15826494, -0.09219269, 0.1679257, -0.11749852, 0.016020244, 0.042400777, -0.22496605, -0.04626367, -0.20425892, -0.11626667, -0.08721773, 0.17294902, 0.027797759, -0.11736137, 0.053711366, -0.1133036, -0.24433638, -0.15764558, -0.0974574, 0.19519679, -0.17080325, 0.029199302, -0.22399817, -0.2730884, -0.19249165, -0.25826812, -0.01752013, 0.17297693, -0.20117103, -0.22619951, 0.04541242, 0.11201367, -0.016187971, 0.2076174, 0.1621976, 0.11813695, -0.05395588, -0.06473623, -0.20595247, -0.08222917, -0.0019686818, 0.15607402, 0.062496662, 0.09645903, 0.12299621, 0.18826658, 0.044334292, -0.10216808, 0.1995644, -0.08505094, -0.24463904, 0.16765702, -0.15688682, 0.20469207, -0.120835125, 0.095298946, 0.014571905, -0.018565, 0.13767654, 0.068175316, 0.11432654, 0.018979132, -0.0016527772, 0.17830724, -0.14808816, 0.031159759, -0.06671351, -0.24476749, 0.19727486, -0.15144742, -0.05175531, 0.13632876, 0.1392948, -0.24511993, -0.059816107, -0.107325435, -0.0052437186, 0.07703805, -0.14103052, 0.026718201, -0.13786931, 0.13906431, 0.045718264, 0.15954696, 0.06160938, 0.16990507, 0.017581046, 0.04905625, -0.12789953, 0.1772711, -0.124951124, -0.21221794, -0.08811921, -0.113746054, -0.03799549, 0.008339801, 0.19266534, -0.0261776, 0.15141185, -0.10793541, 0.089187026, -0.10385764, -0.21173418, 0.14550388, 0.2166071, 0.06804409, 0.13771693, 0.10243124, -0.1315239, 0.15531087, -0.17667042, 0.12680513, 0.053747233, -0.10693288, 0.08931417, -0.16613394, -0.112380564, 0.10541844, 0.12455847, 0.12845677, -0.17064077, 0.05836516, 0.21869528, -0.22514306, -0.019295493, -0.2734282, -0.26227936, 0.18634318, -0.008893799, 0.12989698, -0.17365652, 0.11757571, 0.06092626, -0.061382692, -0.025790334, 0.13775052, 0.08821195, -0.14783277, 0.08041568, -0.14570206, 0.21832371, 0.054468036, 0.12024137, -0.24808651, -0.28137735, 0.030249953, -0.0729637, -0.07083004, -0.14264938, 0.2498464, 0.03458861, -0.10377341, -0.1295144, -0.24932668, 0.21125942, 0.041513857, 0.19981126, 0.18064812, -0.16562654, 0.0026422206, 0.16659193, 0.17360051, 0.1332634, 0.14187342, -0.22155918, -0.10244115, 0.0700776, -0.112320594, 0.15878916, 0.004639653, -0.06816161, -0.12116313, 0.13436311, -0.21558636, -0.22342724, -0.24657696, 0.18851638, 0.055416703, 0.046626627, 0.16048014, -0.15044385, 0.02530682, -0.07704884, 0.18990791, -0.0038414001, 0.12953764, 0.2192787, 0.18711406, 0.18454653, -0.1957081, 0.15402764, -0.18359071, -0.21006054, 0.0035213232, -0.010804713, 0.21086878, 0.051797748, -0.17512304, -0.24430186, 0.09829301, -0.14781141, -0.10523522, 0.22060019, 0.08921993, -0.18008083, 0.06372154, 0.13216835, -0.0088018775, -0.1925565, 0.12612277, 0.018150985, -0.13037622, -0.14581764, 0.19921875, 0.20672834, -0.076829076, -0.17122173, -0.02233684, -0.09608215, 0.23859441, 0.15525967, 0.09019083, 0.07708019, 0.20568758, 0.027226746, 0.09175581, 0.1633507, -0.024930835, -0.08140075, 0.0589453, -0.20914567, 0.2313065, 0.069809794, -0.24093759, 0.1867764, -0.20157707, -0.1364798, 0.11380029, 0.23986399, -0.07069361, -0.23955601, -0.16175222, 0.14118397, 0.05750233, -0.110898435, -0.037455797, -0.11913854, -0.23427945, 0.04414457, 0.115110576, -0.18490314, 0.0521999, -0.078740895, -0.2305302, 0.05620998, 0.2498197, -0.013065994, 0.2124983, -0.2084083, -0.07514137, 0.07381767, 0.082543075, 0.039903104, -0.07306218, -0.11316764, -0.20002937, -0.064663276, 0.10095954, -0.16596758, 0.12233782, 0.29085264, -0.093887985, 0.16350916, -0.06036979, -0.18789665, -0.13685437, -0.2098438, 0.0010468364, 0.18223006, -0.22904727, 0.22135979, -0.17402409, 0.1869694, 0.1245242, -0.2020843, 0.1274909, 0.17614427, 0.025541075, -0.20487386, -0.111477345, -0.20876881, -0.11781396, 0.031186782, -0.10554874, -0.23822981, -0.02494629, -0.23004067, -0.086312704, -0.24838012, 0.23854733, -0.22407883, -0.22944808, 0.049625814, -0.020933568, -0.13517106, -0.19814098, -0.09429687, 0.030066967, -0.18489903, 0.038030922, 0.049526453, -0.22587138, -0.19300795, -0.2242384, 0.15240741, 0.09665918, -0.18954146, 0.2217784, -0.02775377, 0.06957704, 0.15295714, -0.19145906, -0.020350218, -0.08704555, 0.0628162, 0.15605569, 0.15123737, 0.106690705, -0.21924704, 0.08650279, 0.08710551, 0.10977346, -0.0631668, -0.18547606, -0.07253417, 0.16806592, -0.0003901571, -0.1862247, -0.29554555, -0.030157017, -0.15872246, -0.07330912, -0.22723691, -0.25152403, -0.21984386, 0.10813405, -0.24931335, 0.11603764, 0.16760176, 0.032021973, 0.12486749, -0.19387475, -0.25705263, 0.10500227, -0.19567896, -0.25282323, -0.035521574, 0.15256676, 0.021912456, 0.09483058, -0.021490812, -0.15003452, -0.044285182, 0.065333426, 0.08083159, 0.028020263, -0.08868275, -0.20822003, 0.17990178, -0.16136551, 0.16449068, -0.019862352, -0.1941002, 0.106921375, -0.082345225, 0.0560553, 0.19241709, -0.0018370585, -0.14666516, -0.06767087, -0.14311792, 0.05999672, 0.1038536, -3.384587e-05, -0.30188087, -0.17511947, 0.048122104, -0.055721734, 0.14827661, -0.09460618, 0.00874722, -0.0018483088, 0.24025261, -0.08823523, 0.039999604, -0.012560189, 0.2052207, -0.088722646, -0.007667899, 0.04065895, 0.058716238, -0.24359119, -0.14194083, 0.03546512, -0.20083386, -0.1716845, -0.10579163, -0.17148101, -0.06511533, 0.069588244, -0.076636314, 0.16112864, -0.24854189, 0.026877224, 0.1865254, -0.11552733, -0.22437012, 0.19641495, -0.12633687, 0.14079839, 0.15914899, 0.21152979, -0.1563378, 0.11815733, 0.032711446, 0.2364701, -0.0061044097, 0.078256845, 0.06114763, 0.22976375, -0.0649907, -0.14477074, -0.17987496, -0.09399986, 0.06585938, 0.2490784, -0.21083522, -0.024697244, 0.0072099566, -0.2064653, -0.111952305, -0.20087498, -0.03647983, 0.121383905, 0.122231245, -0.15965408, 0.10002005, 0.005554676, -0.09211016, 0.17144924, -0.011527598, -0.13347954, -0.16290355, -0.15218508, -0.014038444, 0.055982232, -0.23562151, 0.008138299, -0.031024039, 0.1942913, 0.15162587, -0.07944101, -0.24742198, -0.14223164, 0.1906305, 0.21395725, -0.09505254, 0.18071884, -0.05201882, 0.058991075, -0.23948717, 0.10040951, 0.18709838, 0.22079718, -0.17528242, 0.18194878, -0.17346597, 0.079237044, -0.20282996, 0.0049954653, 0.1963793, -0.07097554, -0.05024022, 0.11014497, -0.0022674203, 0.009583831, -0.17841923, 0.15628254, 0.24124599, 0.2071948, 0.15931523, -0.1308654, -0.121531606, 0.2046305, 0.1711654, 0.18448263, 0.23795092, 0.17733955, 0.06806862, 0.06674254, 0.20003635, 0.017582178, -0.14835215, -0.15652466, -0.050022185, -0.075589895, 0.21278864, -0.107343435, 0.06289595, -0.0054913163, -0.18038541, 0.06862819, -0.22605962, 0.027393043, 0.18516201, -0.20980191, -0.02077043, 0.06360614, 0.094673276, -0.026468098, 0.22820008, -0.20322514, 0.0030881462, -0.22370309, 0.09668207, -0.07692659, -0.18206671, 0.10988666, -0.124413244, 0.20625865, -0.19814894, 0.17003134, -0.09217421, -0.22061503, 0.18864936, -0.25385723, 0.049656868, -0.19245236, -0.006905675, -0.12788768, -0.23030177, 0.15507683, -0.06495704, 0.1270053, -0.15822569, 0.18821396, 0.17352043, -0.07085182, -0.07394944, 0.11782203, -0.04406506, -0.1245379, -0.11030954, 0.23240258, -0.25763854, -0.1263386, 0.23926753, -0.23526418, 0.25454113, 0.15900257, 0.04864785, 0.027453363, 0.12947355, 0.07223637, -0.1736185, 0.2130596, 0.07153054, 0.16876625, -0.0912177, 0.20865677, 0.080513835, -0.24394454, -0.1448677, -0.0128176315, 0.021067953, 0.12513585, -0.03850955, -0.19241893, -0.16020274, 0.06780619, 0.11902441, 0.02180663, 0.23010409, 0.12675065, 0.086609066, -0.20038576, -0.24707925, 0.15389317, 0.03632623, -0.011528254, 0.23495644, -0.24275416, 0.01916951, -0.17760676, 0.08929771, 0.01473403, 0.11044747, -0.1530546, 0.028191984, -0.13081336, -0.04297173, 0.12645471, 0.12844926, -0.13772225, 0.23730183, 0.15514171, 0.03687477, -0.2403146, 0.05972737, -0.24255264, -0.12129116, 0.123439014, 0.11994976, 0.18787974, -0.0013409853, -0.08276069, -0.12571305, 0.07192385, -0.18351026, -0.17982954, -0.19090956, -0.22334212, 0.24850701, -0.2625481, -0.09410667, 0.106257975, 0.13759224, 0.031519473, -0.005025713, 0.1885792, -0.17105249, 0.17679767, 0.09399539, -0.16022912, -0.13496387, 0.061618086, 0.16748539, -0.27521166, -0.14703116, -0.14163433, 0.14705919, -0.11066343, -0.25635815, -0.21574369, -0.20702058, 0.04451957, -0.1008656, -0.027145036, -0.18994623, -0.06034739, 0.12770364, -0.24049903, 0.18292066, -0.3214218, 0.21204446, -0.3698507, -0.24855612, -0.17205413, 0.27333817, -0.19200283, 0.121079385, -0.139348, 0.105270594, 0.18652907, -0.13932653, 0.2876996, 0.1218307, 0.20720479, -0.15113734, -0.13866128, 0.27071527, -0.17962034, 0.094959706, 0.16995457, 0.27989385, -0.044330716, -0.24695483, 0.021588802, -0.28488708, -0.26059842, 0.049951166, 0.23016784, -0.12905373, 0.06166473, -0.323903, 0.15483418, 0.22267452, -0.31875283, 0.17607418, 0.043667763, -0.16469792, -0.22738874, 0.2971399, 0.28201398, -0.1528796, 0.091510326, 0.23028186, -0.026231527, -0.114967585, 0.121053666, -0.3288098, -0.0050066113, -0.2551786, 0.30621997, -0.14680117, -0.23230052, 0.11228189, 0.29878804, 0.29347548, 0.01674074, -0.20201162, -0.059710532, 0.23231056, -0.08896878, -0.3841161, -0.35586467, -0.21938658, 0.29457647, 0.30437797, 0.091758154, 0.025429757, -0.17544478, -0.35010678, 0.20765305, -0.034353334, -0.12608764, 0.03829825, 0.018900586, -0.1676796, -0.023297846, -0.29922494, -0.2738214, 0.22223327, 0.28233448, -0.35276493, 0.04505934, 0.15692815, -0.277255, -0.04086837, 0.2290366, -0.26785156, 0.26544058, 0.27999708, -0.34446415, 0.25562403, -0.3397492, 0.053466666, 0.26730347, -0.25726232, -0.018983738, 0.20450902, 0.09684226, -0.055714868, 0.17044987, 0.29758146, -0.2564673, -0.11310982, 0.080071695, -0.26713827, -0.16909374, 0.25385675, -0.17054664, -0.11016613, -0.081475586, -0.27576396, -0.33782217, 0.050715625, 0.28378913, 0.04143989, 0.21921113, -0.32559502, -0.13059387, 0.055363685, 0.289027, -0.028677136, -0.33910316, -0.04440111, -0.1628169, 0.014408904, -0.21138138, -0.1879371, 0.28812316, 0.046953052, 0.14965083, -0.2786397, -0.15911187, -0.19769831, 0.16949937, -0.18473461, -0.35502562, 0.2764335, 0.14736721, -0.30741328, 0.22797772, -0.30379814, 8.57977e-05, 0.20090729, -0.06341539, -0.20993973, 0.1616958, 0.009841854, 0.2735231, -0.2746657, -0.13127998, -0.14226364, -0.31128806, -0.30029088, -0.38190877, -0.5612143, -0.10804361, -0.07283786, -0.065137714, 0.056353956, -0.27672938, 0.33366087, 0.1445397, 0.16385806, 0.31823164, 0.33469132, 0.11660084, -0.28090805, 0.30950573, 0.31271175, -0.31298056, 0.0407362, 0.28619304, -0.29760218, 0.28582755, -0.14013009, -0.09234029, 0.3141037, -0.12553346, -0.2805283, -0.19219789, 0.07119623, 0.20256785, 0.21817032, 0.012365788, -0.20732607, -0.21252328, 0.2203416, 0.026610762, -0.24758922, -0.3344693, 0.09007539, 0.06335678, -0.12646113, 0.25138426, 0.1974471, 0.21820976, -0.04927498, -0.30142733, 0.2017512, -0.24118137, -0.097583026, 0.28772846, -0.3484547, 0.2912384, 0.254713, 0.20252486, 0.12279856, -0.14359844, 0.28292665, 0.06415605, 0.1322769, 0.24137843, -0.08395323, 0.3303884, 0.2675343, 0.049672775, -0.34310484, -0.2459937, 0.12214443, 0.18049052, 0.2114878, 0.2770652, -0.1165362, -0.07229838, -0.10769026, -0.22266518, 0.20077446, -0.0448848, 0.2020599, 0.15590623, -0.28429914, 0.26917228, 0.044723272, -0.2508389, 0.25988725, 0.35289994, 0.25454527, -0.02087779, -0.23987432, 0.15573755, -0.22953068, 0.120858446, -0.21335983, -0.058629006, -0.03982252, 0.12927902, -0.08922394, 0.21574312, 0.079530776, 0.21992575, 0.030092418, -0.14956804, -0.12085743, 0.00047558546, 0.097783566, -0.040271312, -0.3388873, -0.29864278, 0.15592435, 0.0742549, -0.02641797, 0.25566146, 0.051742435, -0.2194813, 0.25196692, 0.17669728, 0.34270218, -0.100744456, 0.2730803, -0.3417901, 0.12884301, 0.02777183, -0.11609709, -0.3599212, 0.11090183, 0.19064313, 0.0033629835, 0.009581834, 0.3223814, 0.20478478, -0.037705332, -0.19479674, 0.34540078, 0.015447825, -0.13644923, 0.031028748, -0.3525037, 0.07859571, 0.2337145, 0.13389494, 0.28522855, -0.14820239, 0.28003004, -0.48256913, 0.16565742, 0.09402162, -0.19215988, -0.48072642, 0.12130479, -0.17747068, -0.054564305, -0.2464221, -0.054878145, -0.1142606, 0.047499243, 0.20808107, 0.070682764, -0.14836693, -0.05422461, 0.01394698, -0.32905582, 0.072508454, 0.10050985, -0.25758478, -0.022798926, -0.17887282, 0.13677283, 0.0573066, -0.20692417, -0.2709679, -0.04495984, -0.19184296, 0.22444718, 0.008681687, -0.2212857, -0.21950214, 0.28765625, -0.32155663, 0.21185604, 0.13552536, 0.2947543, 0.030298352, 0.026491027, -0.2773166, -0.31794122, -0.074737996, 0.37228692, -0.10211497, 0.19126157, 0.12910761, -0.32127768, -0.34973788, -0.14992553, 0.056246236, 0.041125894, -0.27727446, -0.25357258, 0.05158952, 0.29591176, -0.121562466, 0.04315282, -0.19738442, 0.30286214, 0.039796844, -0.28923142, 0.011086755, 0.2123805, 0.22025621, 0.017875671, -0.35248488, 0.26979682, -0.2994918, 0.0017620027, -0.020576924, -0.21567269, -0.31115058, 0.27362686, 0.20608151, 0.22610347, 0.34184256, 0.1376383, -0.25005817, 0.18607125, -0.24610794, 0.07066247, -0.20418456, -0.13505933, 0.2503098, -0.1694656, -0.12688595, 0.05340532, 0.16550422, -0.25875628, 0.14543277, -0.15591614, 0.20415218, -0.15867183, 0.31646025, -0.035728544, -0.06802654, -0.085677534, -0.24064341, -0.067192614, 0.23460975, -0.09051061, 0.06641811, 0.030709846, -0.16227666, -0.049756795, -0.046099957, 0.23133884, -0.057105105, 0.18691842, -0.398966, 0.20245865, -0.18681523, -0.04352876, -0.08936748, -0.0046187043, 0.1607007, -0.14751844, 0.016150177, -0.37771925, 0.12977082, -0.24353418, 0.0257317, -0.055226333, 0.053707417, 0.047393538, -0.0953646, 0.17354712, 0.0028956376, 0.28834224, -0.050941437, 0.008394897, 0.08305, -0.21386744, 0.0031696856, -0.05419469, 0.27713475, -0.09523171, -0.034897868, 0.098845944, 0.25291523, 0.18588345, -0.24767266, -0.2655295, -0.3881864, 0.26391372, 0.061602175, -0.33347464, 0.2410683, -0.18986428, 0.13196608, 0.2896321, -0.28497952, -0.211773, 0.33013162, 0.07325283, -0.051451027, 0.017004639, -0.25436187, -0.33857995, 0.060829192, -0.2658845, -0.24407652, -0.13480222, 0.35026702, -0.27864712, 0.026851833, 0.23467113, 0.09826969, 0.3126454, -0.22263685, -0.1645115, 0.011361246, -0.027958235, 0.109917924, -0.057103246, 0.22320399, -0.25642374, -0.2249478, -0.29751906, -0.0030937926, -0.33846834, -0.025864512, 0.018478364, 0.3374463, -0.0618532, 0.079128, -0.13852961, 0.33926383, 0.05600533, -0.08707413, -0.1299974, -0.2030582, -0.06916687, 0.06754801, -0.3074845, -0.07541436, 0.3135099, 0.1745415, 0.34590092, -0.12986691, 0.17108461, 0.17774175, -0.2891131, -0.095274925, 0.19835746, 0.15344389, -0.10757384, 0.15817876, 0.048719723, -0.3355324, -0.011634976, -0.11604067, 0.11113032, -0.06436768, -0.2748233, 0.1477356, -0.46377313, -0.2740878, 0.04521791, -0.21749602, 0.5533269, 0.030668652, -0.1594677, 0.040454865, -0.33849502, -0.2600869, 0.005738291, -0.19136871, 0.26293215, -0.3434498, 0.20155635, -0.2781329, 0.2356162, -0.3046931, -0.11102763, -0.17936854, 0.3496288, 0.26064348, 0.37767273, 0.08045586, -0.04429114, 0.23320504, -0.22460093, 0.40726855, 0.47180146, -0.4125049, -0.32809493, -0.34943524, -0.48249435, -0.40853226, 0.2109174, -0.19146132, -0.42207325, -0.09446954, 0.06376579, 0.22236492, -0.42466092, -0.5228719, 0.06817283, -0.05633946, -0.28154925, 0.42206758, -0.021399787, -0.28224376, -0.144696, -0.5494949, 0.2922962, 0.33401215, 0.32039365, -0.334331, -0.37050816, -0.17808765, 0.19466162, 0.23686989, -0.28336996, 0.054857012, 0.3371272, -0.44532922, 0.40015364, -0.4366386, 0.39558363, -0.2829181, 0.24148083, -0.39525497, 0.36248958, 0.495574, 0.3402899, -0.01352351, -0.2447356, -0.32410896, 0.36221576, 0.050076906, 0.33009997, -0.3199184, 0.12967218, -0.1172621, 0.1610117, -0.14551556, -0.3642091, -0.0456526, -0.38322178, 0.33551037, -0.11542857, -0.466676, -0.056749582, -0.02256167, 0.4252546, -0.3892171, -0.25046387, 0.06158549, 0.09994638, -0.2562244, 0.3978889, 0.2736132, -0.3400433, 0.4037292, -0.11970496, 0.41589737, -0.1220013, 0.38357407, 0.30265284, 0.47292745, 0.09782423, 0.25734854, 0.20813887, -0.38707888, -0.40768158, -0.14849973, -0.45336092, -0.1722132, -0.06832751, -0.06772619, 0.1646724, 0.3031205, 0.47147942, -0.26320446, -0.2806238, -0.4904108, -0.47076392, 0.3276435, -0.34875143, 0.10611856, -0.07554435, -0.5330634, -0.110491216, 0.35207543, 0.043693356, 0.6738282, -0.043585584, -0.08261833};
double biases[] ={0.020660771, -0.19757476, 0.0, 0.0, 0.0, 0.0, 0.0, 0.0, 0.0, 0.0, 0.0, 0.0057943673, -0.1922231, 0.0, 0.0, -0.019617738, 0.0, -0.14514957, 0.0, -0.047115617, 0.0, -0.08674369, 0.0, -0.067656726, -0.02771315, -0.07513594, -0.10786513, 0.0, 0.061417468, -0.11153411, -0.032923393, 0.053437177, -0.006961456, 0.0, 0.0, 0.112888634, 0.0, 0.0, -0.08440586, 0.0, 0.0, 0.0, 0.0, -0.08016348, -0.057975482, 0.0, -0.10946921, -0.035986725, -0.076401725, 0.0, 0.0, 0.0, -0.040851027, 0.0, -0.05136651, -0.07064103, 0.0, 0.0, 0.0, 0.0, -0.08123566, -0.06998388, 0.0, 0.058658894, -0.060054366, 0.0, 0.0, 0.0, -0.028929075, -0.060051896, 0.0010311183, 0.0, -0.06005422, 0.0031590655, -0.05288541, 0.0, -0.05191819, -0.06293174, 0.0, -0.03238908, 0.0, -0.060053844, -0.035773005, -0.047859613, -0.059031777, -0.046471678, -0.052231282, -0.06455957, -0.06005407, -0.06297607, -0.05220947, -0.14591075, 0.0, -0.09935682, 0.0, -0.13320754, -0.060054444, -0.060054388, -0.08841606, -0.11599253, 0.10551177, 0.049858518, -0.080857724, -0.090850614, 0.0, -0.15021177, -0.049205903, -0.060054522, 0.0, -0.07207919, -0.21843179, 0.0, 0.06956388, -0.04736656, 0.0, -0.1586825, -0.07405861, -0.095116615, -0.026823167, -0.060714707, -0.07903128};

int layers = 6;
MicroMLP mlp(layers, topology, weights, biases, RELU); //Create the Multi-Layer Perceptron


void setup() {
  Serial.begin(9600);
}

void loop() {
  Serial.println();
  if (Day < 0) {
    Serial.println("Not a valid data.");
    delay(100);
    return; // exit the current loop iteration
  }

  double output[0] = { };

  if (Day < 10) {
    output[0] = blind_feed[int(Day) - 1]; // Use predefined blind feed value
  } else {
    double inputs[] = {Day};
    mlp.feedforward(inputs, output);
  }
  
  Serial.print("Day:");
  Serial.print(Day);
  Serial.println("");
  Serial.print("number_of_fishes:");
  Serial.print(number_of_fishes);
  Serial.println("");
  
  float op = output[0];
  Serial.print("FishFeed per fish:");
  Serial.print(op, 1);
  float Total_fishFeed = op * number_of_fishes;
  Serial.print("Total FishFeed:");
  Serial.print(Total_fishFeed, 1);
  delay(1000);
  Serial.println();
  
  int revolutions = round(Total_fishFeed / grams_per_revolution);
  Serial.print("revolutions:");
  Serial.print(revolutions);
  delay(1000);
  Serial.println();
}
