weights: {0.19418147, -0.088809356, -0.25743937, 0.15698838, -0.21362239, -0.048534494, -0.057245538, -0.15830751, 0.08677858, 0.2010148, -0.2899763, -0.13242939, -0.19651623, 0.11010604, -0.14666481, -0.10938792, 0.1103348, -0.071334496, 0.26535448, -0.09600471, 0.11146909, -0.24105173, -0.16787887, 0.18887322, -0.10529436, -0.07005772, 0.2721633, 0.17712185, -0.02092591, 0.07738182, -0.111145884, -0.12025908, -0.23129666, -0.25657803, -0.026307136, 0.01237623, -0.21534812, -0.034785867, 0.009077459, -0.07468198, -0.28568986, 0.11368612, -0.15873525, -0.031510506, 0.25458145, 0.22349952, -0.068602905, 0.12149872, -0.043376148, -0.16628264, 0.078443855, 0.19711284, -0.06896472, -0.16016999, 0.12017314, 0.059793096, 0.32383943, -0.10386555, -0.059168003, 0.20809388, -0.09234239, -0.04029396, -0.065886885, 0.17310086, 0.20943348, -0.038706016, -0.25212574, -0.059182473, 0.1378985, -0.097744465, -0.06904113, -0.23304208, -0.004944807, 0.096709825, -0.08757669, 0.21536312, -0.17815368, 0.07590932, -0.068918064, 0.1302918, -0.26649493, -0.11875701, -0.29724714, 0.14101313, 0.038477544, 0.066127464, -0.09679939, -0.041030034, -0.07899012, -0.18706155, -0.011581242, -0.076177716, 0.056818783, -0.027143508, -0.12573595, 0.08059042, 0.048891842, 0.055447638, -0.10226387, 0.092013896, -0.1310224, -0.1674717, -0.1762687, -0.2305848, -0.23663765, -0.18181157, -0.019042075, 0.07496667, 0.024208426, 0.101596355, -0.12145746, -0.243411, -0.094594836, -0.13420665, 0.16249436, -0.21996737, 0.041062295, -0.06954354, 0.023352623, 0.048588216, 0.21514893, 0.12065858, -0.042678535, 0.055806816, 0.16815722, 0.09440583, -0.093627155, 0.15073729, -0.24822849, 0.09660095, -0.16236466, -0.18070972, 0.008816719, -0.15416133, 0.028127551, -0.21020865, 0.017092407, 0.119796276, 0.1295312, -0.0042315125, 0.1470722, -0.18769366, -0.12599248, 0.036037326, 0.014518201, -0.10058957, -0.21457094, -0.18288201, -0.19857597, 0.1437887, 0.07704425, -0.14742607, 0.24627042, 0.058648765, -0.16997242, 0.13908094, -0.0075497627, 0.020033479, -0.026565433, 0.099712014, -0.074554525, -0.01822203, 0.028158465, 0.09149097, -0.10033781, -0.14931375, 0.060720325, -0.1743244, -0.10845265, -0.090913564, 0.029227018, -0.13161084, 0.087679215, -0.09646785, 0.13922139, 0.03602957, -0.0034515064, -0.104913436, 0.103615, -0.27574584, 0.030451, 0.15432881, -0.26971424, -0.22909129, -0.05473427, -0.07023847, -0.054301858, -0.24373913, 0.000826776, 0.11590195, -0.14975384, 0.0014388835, 0.07723975, 0.18308288, -0.1852392, -0.11382866, 0.112374365, 0.18909144, -0.018694878, 0.23344016, 0.012101412, 0.22452784, -0.18940103, -0.038502455, 0.0107268095, 0.11700797, 0.089636505, -0.0044593215, -0.07244623, -0.15334445, 0.1463263, -0.06341016, -0.17558521, 0.05699879, 0.21919805, -0.027323484, 0.14342332, 0.009151757, -0.2462737, 0.018690288, -0.153472, -0.049651504, 0.14642501, 0.17301095, 0.08484689, -0.1537364, -0.23481268, -0.04340342, 0.17376828, -0.01899165, -0.06819701, 0.054404676, 0.105296984, -0.10314416, 0.17038417, 0.13122295, -0.057329793, 0.1715582, 0.18807928, -0.21098183, 0.12826668, 0.16278362, -0.10833975, -0.13990694, 0.0630793, 0.19147809, 0.1641359, 0.085231245, -0.19476928, 0.21099031, 0.14993143, -0.16216964, 0.083875835, 0.007165481, 0.022188976, 0.0908739, 0.21584916, -0.06263226, 0.19265753, -0.07424098, 0.08296293, 0.21563292, -0.11109841, 0.08695209, -0.030851245, -0.06039238, 0.18734068, -0.24955249, 0.17461503, 0.1527341, -0.23378134, 0.073842645, -0.024300337, -0.15382314, -0.032406628, -0.026463747, 0.07930291, 0.029214501, 0.24930501, -0.025004327, -0.04517436, -0.22234869, -0.08419961, -0.23081177, -0.21276885, 0.07936394, 0.09656572, -0.16194761, 0.01056391, 0.024459898, 0.09107214, -0.050218165, 0.03963417, -0.033872545, 0.21882075, 0.031889856, -0.11505681, -0.19422269, -0.24186897, 0.07772732, -0.16545987, -0.003931105, -0.036164105, 0.033091903, -0.12373179, 0.116374254, -0.19664592, -0.21010166, 0.121718526, -0.23476762, 0.19730806, -0.19242722, -0.21732134, -0.17352086, -0.15088022, -0.110459745, -0.056521356, 0.013532698, -0.009439349, -0.19841415, -0.2351165, 0.1098227, -0.26283056, 0.073741235, 0.21796006, -0.011865497, -0.009703159, 0.21112749, 0.11183191, 0.06281746, -0.104782164, -0.07438506, 0.16065934, -0.10244286, 0.058397133, -0.058894195, 0.08118992, -0.036677513, 0.039703, 0.08408858, 0.0111300815, -0.18529083, -0.22355466, -0.024942838, 0.13716905, 0.118932664, -0.010880232, 0.12806362, 0.08838791, -0.28694624, 0.06731771, 0.17089516, -0.06748678, 0.15292291, 0.014856204, 0.1831127, -0.112844385, -0.123143256, 0.19698274, -0.096894, 0.052817952, 0.030583994, 0.23003477, 0.007519629, -0.16053134, 0.09404296, 0.22471493, -0.21125053, 0.036707617, 0.052392766, 0.10841655, 0.04607441, 0.0784021, 0.09871287, -0.22287546, -0.23696034, 0.23400599, 0.038733542, -0.015822709, -0.23269993, -0.04924923, 0.1378863, -0.21883506, -0.16901666, -0.0644362, 0.036103487, -0.0744741, -0.24968731, -0.12443924, -0.16228515, 0.24325776, -0.13321579, -0.18184936, -0.18700719, 0.034697533, 0.11866796, 0.23749268, 0.16216153, 0.23887116, -0.24507391, 0.14630663, 0.024371505, 0.071962595, 0.13267696, -0.06746441, -0.108784676, 0.21068686, 0.19726092, -0.04706478, 0.23379779, -0.0626328, 0.17945838, 0.11912161, 0.062734604, -0.1801911, 0.12514228, -0.24144185, -0.06467795, -0.08010185, 0.09932989, 0.06363678, -0.23302042, 0.21319598, -0.055862665, 0.0110548735, -0.115627825, 0.016004026, -0.05414009, 0.16350156, 0.20521843, -0.23497391, -0.10169774, 0.16228223, -0.22651821, -0.12583911, 0.202039, 0.22219342, -0.13137794, -0.08858502, -0.093949676, 0.039160848, 0.21294439, 0.20132548, 0.10460693, 0.089589894, -0.104115784, -0.058511376, 0.22313994, 0.21642405, -0.13621801, 0.20422399, -0.098731875, -0.085522056, -0.07719052, -0.0074266195, 0.14282632, -0.11592686, -0.24765986, -0.055318356, -0.11991125, -0.04009098, -0.18758911, 0.07366991, -0.012185156, 0.0898518, 0.1966368, -0.21029592, 0.091775954, 0.10371435, 0.011587143, 0.14057368, -0.1628195, 0.23906815, 0.11851114, -0.10735315, 0.033359885, -0.16868967, -0.18711674, -0.2120198, 0.21711606, 0.09463208, -0.1439004, -0.27040574, -0.16789883, -0.01521855, -0.2053634, -0.18729526, -0.20684208, 0.087724365, 0.15717146, -0.22552776, -0.012330828, 0.15016922, -0.23050755, 0.034016732, -0.258677, -0.25990066, -0.0042178365, -0.19647002, 0.12359594, -0.24353105, -0.028818173, 0.044894867, -0.09231994, 0.23622733, 0.11592561, 0.076366305, 0.01993984, 0.20085019, -0.016116539, -0.12891036, -0.27749234, -0.2430265, -0.08654523, -0.10609549, 0.18083233, -0.119407654, 0.15735614, 0.18675315, 0.06560916, 0.0021671653, 0.0019516349, -0.052593708, -0.06278169, 0.2010333, -0.059941173, 0.17855263, -0.11439854, -0.05198735, 0.22925246, 0.24091679, -0.097470164, 0.030766249, 0.22788292, 0.16880143, -0.24541545, -0.23289883, -0.0623008, 0.08943677, -0.12515008, 0.014486313, 0.20906639, -0.11537224, -0.12222856, 0.13752604, -0.15062171, -0.23763537, -0.11947477, 0.030673623, -0.06774336, 0.01783222, 0.119632244, -0.021611273, -0.15236115, 0.10163438, -0.19462228, 0.13759959, 0.07336879, -0.22761029, -0.15860808, -0.24661833, -0.23114187, -0.10148907, -0.07917011, 0.12009168, -0.078550816, 0.24117553, 6.4969063e-06, 0.21156883, 0.23762, 0.17198867, 0.10226238, -0.20399988, 0.20238316, -0.07295281, -0.020547569, 0.12796888, 0.08670477, -0.029852051, -0.0009997712, 0.27644005, 0.1768598, -0.17707008, -0.21733445, -0.1774217, 0.02518473, -0.11309224, 0.13622747, -0.23603712, 0.13579875, -0.052905384, -0.0019922294, -0.13931963, -0.020193651, -0.019902926, 0.07327078, 0.17724109, 0.06079983, -0.14553499, 0.0117409015, 0.21842062, -0.0052200556, 0.1961568, -0.23744816, 0.069098175, 0.118890114, -0.08322344, -0.15733841, 0.13244843, 0.05758667, 0.22794056, 0.20787084, 0.040813982, 0.16429359, -0.0667963, -0.1841014, -0.16486096, -0.12956643, 0.0005816817, -0.20063663, -0.13522792, -0.18362975, -0.1273796, -0.05555713, 0.21963543, 0.012438774, -0.0008903742, 0.079595625, 0.1722269, -0.037374854, -0.002826631, 0.052727938, 0.18374479, 0.12665588, 0.18705767, 0.15631735, -0.18670517, -0.18960875, -0.10811329, 0.19539207, 0.20265362, -0.22554304, 0.027278002, 0.02648228, -0.076046765, 0.16385597, -0.14925367, -0.029753046, -0.15217279, 0.0071790367, -0.04027593, 0.08508513, 0.15574169, -0.20177448, 0.073633686, -0.030559592, -0.08528799, -0.277139, -0.25626945, -0.15149817, -0.021598665, 0.025063071, -0.027505571, 0.066632524, 0.10321842, -0.06694943, 0.13758814, -0.10089719, 0.030638337, -0.08337517, -0.2593345, -0.076971516, 0.04529971, -0.15677595, 0.13255805, -0.0617702, 0.03415674, -0.10458505, -0.039720476, 0.11560696, 0.09202689, -0.019766092, -0.006599009, -0.19295329, -0.14126378, -0.24812841, -0.22852206, -0.24961346, -0.09697968, 0.13995004, -0.17653179, 0.1880098, -0.23838061, -0.14644355, -0.19715428, -0.13027614, -0.04149276, -0.1444155, -0.24697304, 0.24370772, -0.20560217, 0.10212475, 0.13658875, 0.07260591, -0.05276069, -0.021483356, 0.009202344, 0.13817537, -0.15083951, 0.011537313, -0.19702321, -0.1791746, -0.040005554, -0.19724675, 0.11289209, -0.10821955, -0.14828081, 0.035830438, 0.0005289065, -0.29258767, -0.1482858, -0.17215265, -0.051432543, 0.17914523, -0.003955992, -0.08165099, -0.31326184, -0.09555954, 0.23840956, 0.094662726, 0.1754753, -0.016864657, 0.033879638, 0.047521297, -0.05892383, -0.217502, 0.20159203, -0.1421277, -0.05878079, 0.07910669, 0.0005019307, 0.056962907, 0.24413419, -0.11988741, -0.22111505, -0.060427308, -0.122389674, -0.03948933, -0.18975306, 0.13092965, 0.15079105, -0.069509625, 0.16942298, -0.0355289, -0.1648314, 0.074821234, 0.018814921, 0.08245844, 0.15356451, -0.0050725937, -0.16497964, 0.011683345, 0.028157532, 0.027704418, 0.04566455, 0.13979554, 0.10557699, -0.24486387, 0.19827414, -0.04913503, -0.20524871, -0.18575233, 0.0015893579, 0.11903328, -0.23608261, 0.091658294, -0.020463109, -0.1965844, -0.014749646, -0.08116162, 0.19779634, -0.13804597, -0.0037627816, 0.2350207, 0.08369255, 0.23856705, 0.15185279, 0.06536955, 0.15076452, -0.103203, -0.035191774, -0.01210171, 0.13993442, 0.07507753, 0.034204423, 0.12440956, 0.13611871, -0.22443396, 0.16225839, -0.05945933, 0.16685887, 0.14010334, -0.2520896, 0.012865809, 0.100930735, -0.040650725, -0.06624228, -0.16073798, -0.10675018, -0.0007277701, 0.15274554, 0.26419628, 0.008320249, 0.13276196, 0.112589985, -0.3015156, 0.18098578, 0.14456424, 0.08321518, 0.008943424, -0.1201403, -0.060983844, 0.09037336, 0.16691253, -0.10463378, -0.06384754, 0.15584356, -0.20325184, 0.058194518, -0.043090034, 0.21419908, -0.10815058, -0.1730873, 0.1564129, 0.065353274, -0.018667579, -0.14007294, -0.23212236, -0.036468804, 0.01527667, 0.10851163, -0.036480665, 0.15671372, 0.081931055, -0.0035132766, -0.16342086, 0.14740914, 0.003988087, -0.11565381, 0.031306267, 0.18883407, 0.122708976, 0.19716614, 0.08251023, 0.21478921, 0.07116008, 0.038258314, -0.22786629, 0.068226814, 0.16257203, -0.024217665, 0.21650153, 0.014181614, -0.12100363, 0.010175884, 0.240183, -0.15826386, -0.124976635, -0.041075945, -0.12837315, 0.026409507, 0.090800226, 0.13538289, -0.017130971, -0.1223346, 0.049185157, -0.049643755, -0.056117892, 0.12488544, -0.12451011, -0.22676492, 0.18596143, 0.12927598, -0.13654333, -0.16494775, 0.15062505, 0.16392076, -0.09073186, -0.24374533, 0.09351224, -0.23094547, 0.20217049, -0.16676575, -0.19686824, -0.16438824, -0.11871886, -0.04883956, -0.018019468, -0.31025463, -0.26087177, 0.17531604, 0.14547199, 0.19366783, -0.030887462, -0.07813928, 0.22056901, 0.21245986, -0.20356478, -2.6912017e-05, -0.21654522, 0.255813, 0.088941075, -0.15688592, -0.2361547, -0.24239221, -0.25614086, -0.059737604, -0.15129595, 0.16725627, -0.22665085, -0.082622215, -0.1449225, -0.08549988, 0.21776074, 0.16495436, 0.090379246, -0.015185285, -0.1881516, -0.018597854, 0.016108729, 0.027492251, -0.16203958, -0.18901896, -0.1214717, 0.19257611, -0.086327665, -0.23794493, -0.22584677, -0.084905684, 0.20513333, -0.25167736, -0.11164343, -0.056263503, -0.047650255, 0.043352284, -0.282247, -0.30494222, 0.18970752, 0.19093549, -0.26003656, 0.019392595, 0.16935852, 0.1276398, -0.2359845, 0.089245856, -0.16129428, 0.087467074, -0.066863984, -0.15753044, 0.15122144, -0.15862505, -0.2788965, -0.13538489, 0.15430939, 0.07146296, 0.17061085, -0.21990901, 0.21556687, 0.15889232, -0.25790632, 0.025647938, -0.19736439, 0.0009327224, 0.030709982, 0.06973213, 0.032070324, 0.06542378, 0.055038713, -0.062105294, 0.22811627, 0.19875431, -0.028193101, 0.0204513, 0.0038632154, 0.05342091, 0.17857456, 0.21015912, 0.10626167, 0.20172817, -0.19631842, 0.15298292, -0.10661185, 0.13493647, 0.06724849, -0.10235168, 0.003120544, 0.062846884, -0.089327574, 0.19103855, 0.21555008, 0.116745256, 0.09442827, -0.07123697, 0.06737787, 0.14831729, 0.015045404, 0.07455602, -0.19346951, 0.08879238, 0.036616847, -0.082300305, -0.26078257, 0.17992106, -0.11321689, 0.11549612, 0.01711764, 0.09853728, -0.23953187, 0.06726092, 0.011173964, 0.03141004, -0.12286872, 0.15005991, -0.27906254, 0.05583924, -0.098383665, 0.0956704, -0.24853945, 0.1426037, -0.090762734, -0.1432674, 0.046103895, 0.1321832, -0.063945174, -0.06876749, -0.10621089, 0.07555717, -0.12911075, 0.22606438, 0.011654854, -0.20316541, 0.021202266, -0.14776719, 0.22375596, -0.13253164, -0.13378882, -0.11359537, -0.14434987, 0.23147964, 0.21459073, -0.19067901, 0.19882876, -0.0423941, -0.13310319, 0.015306115, -0.10601246, -0.23990554, 0.18083352, -0.2305764, -0.205791, -0.11230558, 0.049171984, -0.24715036, -0.09912002, 0.020453274, -0.10399127, 0.07547176, 0.15363455, 0.23773915, -0.17691737, -0.16222823, -0.13343859, -0.095808625, 0.100353, -0.092080176, -0.23210406, -0.014505863, 0.13648081, -0.13241357, -0.061570704, 0.22068024, -0.23755401, -0.1790492, -0.054323673, 0.23990965, 0.22351903, -0.06528443, -0.14030218, -0.037800193, -0.06389153, 0.24285084, -0.065755844, -0.2436719, 0.02781564, -0.15323633, 0.11438793, 0.07029033, 0.18198782, 0.22525233, 0.22315049, 0.08300239, -0.07121706, -0.22002959, 0.1877371, -0.24913299, -0.1591261, 0.17894387, -0.21546364, -0.059103012, -0.08885205, 0.24049509, 0.1476801, 0.09105533, 0.20651513, 0.20334834, -0.102415085, -0.199364, 0.18113315, 0.044896603, -0.15183794, -0.18273091, 0.13466638, 0.23697329, 0.13491803, -0.1528157, 0.16734475, -0.035151243, 0.13065928, -0.16681993, 0.19792926, 0.05015284, 0.13532329, 0.021447778, 0.12210214, -0.24304754, -0.14383775, -0.09353733, 0.18167984, 0.014053881, 0.14374971, 0.2254737, 0.10705876, 0.051722348, -0.107825994, -0.18450648, 0.14252514, 0.082917154, 0.19778436, -0.13240516, -0.16008115, -0.052663565, 0.036724985, 0.048701704, 0.18546581, 0.19027543, 0.02440101, 0.02529484, -0.23989582, 0.21677244, 0.16647613, -0.17446566, 0.22425926, 0.12064338, -0.038913727, 0.021405697, -0.23347813, -0.116384506, 0.1680888, -0.23023933, -0.1944071, 0.044106066, -0.22578722, -0.1878075, -0.05180317, 0.09598613, 0.08864635, 0.105326, 0.019982517, 0.045919955, -0.0860787, -0.023363352, 0.12981653, -0.072338045, -0.17279512, -0.08553275, -0.2693576, -0.2286436, 0.21201454, -0.08537065, 0.07919294, 0.18898118, -0.09001833, -0.11616659, -0.22055615, -0.096775055, -0.17848216, -0.22780694, 0.2426765, 0.16375583, -0.0051132394, 0.005862619, 0.17162995, -0.031308256, -0.21859194, 0.07956393, 0.13351497, -0.27204305, 0.01800502, 0.065062866, -0.21627963, -0.022999108, 0.1052075, 0.0038309097, 0.05853445, 0.22454335, -0.19972141, 0.02681005, -0.030259073, 0.10024536, 0.24248922, -0.15189803, -0.113624156, 0.21832085, -0.13232046, -0.037368476, -0.087883234, -0.21764195, 0.21110886, 0.10969967, -0.20068783, 0.03283763, 0.1746887, 0.22182655, 0.13631397, 0.14366078, 0.23674488, 0.15783983, -0.06174636, -0.18186736, -0.09828615, -0.19060987, -0.13370717, 0.24305642, -0.24986142, -0.14310652, -0.07009423, -0.15169948, 0.16678554, -0.096325755, -0.03274709, 0.041722834, -0.12070209, 0.086789966, 0.041231394, 0.20230919, -0.21144754, -0.14670277, 0.020281792, 0.045383334, 0.23933691, 0.024532855, 0.24174559, -0.11120641, -0.2136426, 0.21207464, -0.2029264, -0.044065475, 0.008551717, -0.19324309, -0.12804562, -0.16816765, -0.17557347, -0.24926901, 0.07267767, 0.08721191, 0.090432644, -0.009046257, -0.09311175, 0.10546076, 0.016364813, -0.20209171, -0.27581534, -0.25616133, -0.09548523, -0.06412292, 0.23025781, 0.005994737, -0.08480265, 0.14760628, -0.06911496, -0.07752335, 0.14630207, -0.06774767, -0.21170497, 0.038963344, -0.21119094, -0.23811813, 0.14240454, 0.090426035, -0.13980451, -0.20003004, 0.18955837, -0.027126424, -0.19799845, 0.07681734, -0.039973915, 0.15077323, -0.13537592, -0.044219196, -0.12780704, 0.092334785, 0.11096562, 0.17786843, -0.08365032, -0.01644653, -0.10898709, -0.039437197, 0.09221691, 0.17102224, 0.11284377, 0.08445134, 0.08714563, 0.116538465, -0.1633992, -0.19045834, -0.15815866, -0.007231386, 0.15461192, -0.10786409, 0.061610203, 0.012907594, -0.23597056, -0.12241074, 0.118778884, -0.08682051, 0.16573435, -0.07415021, -0.008072555, 0.19995147, 0.17830491, 0.2051968, -0.03495409, 0.097088285, -0.13415301, 0.20691264, -0.23514986, -0.019116104, 0.15679973, 0.20427382, -0.20866853, -0.11469132, -0.04097742, 0.048978984, 0.24357808, -0.24826956, -0.035036445, -0.066397905, 0.123900175, -0.17028028, 0.08202076, 0.082131684, -0.24405426, -0.15319693, 0.029165566, -0.104679465, 0.18335402, -0.114072144, 0.1314708, -0.19789428, -0.10818535, -0.04022628, 0.0032468438, -0.14383447, -0.00042665005, 0.17679822, -0.12361497, -0.14527023, -0.21086627, -0.2492478, 0.21242288, 0.014042941, -0.14187992, -0.02995783, 0.13221702, 0.17375636, 0.0039077597, 0.21841061, 0.06557085, 0.11934361, -0.19932681, 0.18360688, 0.1361538, -0.17839393, 0.089751445, 0.10803212, -0.22425339, 0.20889883, -0.0076095248, -0.07157025, -0.06908948, 0.002108022, 0.008192718, -0.23122305, 0.08173823, 0.0051195025, -0.060311858, 0.15653327, 0.05598266, -0.19148505, -0.18728393, 0.18311524, 0.23875427, -0.15066135, -0.08292198, 0.06905967, 0.09182519, 0.20594954, -0.034329236, -0.08607072, 0.10370731, -0.11763334, -0.049334884, 0.201482, 0.0002194047, 0.16428393, 0.082716346, -0.049511313, -0.082086086, 0.14368427, -0.2117253, 0.06963062, -0.10637474, -0.13130522, 0.24219209, -0.008757353, 0.22866619, 0.17268676, -0.0138114095, -0.16393244, -0.053095758, 0.0795539, -0.16828074, -0.19477624, 0.15101145, -0.22013488, 0.23615658, -0.14365774, 0.038904898, 0.16736251, -0.06440803, -0.14624852, 0.13579139, 0.026709193, 0.042736053, 0.14647748, 0.10970135, 0.028624672, 0.14715195, -0.27503386, 0.016343474, -0.12320896, 0.05650986, 0.06693326, 0.14471853, 0.2053051, -0.018102169, 0.07328296, -0.107827306, 0.055066884, -0.07807244, -0.10174119, -0.16646379, 0.08269048, -0.047669422, 0.14459161, 0.028791098, 0.11484741, 0.057830215, -0.089720786, 0.24077106, 0.19906905, 0.10564008, -0.17733902, -0.0102295, -0.1534024, -0.0324502, 0.09337813, -0.03443866, -0.12312001, -0.036933947, -0.041505642, -0.116654895, 0.0019171172, -0.23764059, -0.16183676, -0.12991688, -0.040109776, -0.044844985, -0.09530705, 0.18351507, 0.01751405, -0.099853866, 0.00086425885, -0.2914802, -0.022618463, -0.15969273, -0.07372514, -0.025005665, 0.20425145, -0.10390222, -0.10337043, 0.048854355, -0.18744947, -0.22614363, -0.17099571, 0.14310291, -0.037167884, -0.17277724, 0.26325098, -0.1749288, -0.28226689, 0.03439031, -0.27067116, 0.0025293834, 0.02353374, 0.051157314, -0.30081686, -0.26217052, -0.0568849, -0.2197923, -0.039511144, 0.15314496, -0.18033808, -0.34116182, 0.11583988, 0.16964899, 0.16066253, -0.2465424, -0.045971334, -0.19790101, 0.12068266, -0.14909333, -0.22238743, -0.22278553, -0.17753953, -0.04010731, 0.13829881, -0.040050566, -0.19104207, -0.20522457, 0.23542595, 0.15644842, -0.04966086, -0.23338044, -0.058267653, 0.10349524, -0.07125616, -0.13577133, 0.03754735, 0.088056624, 0.24036163, -0.042996466, 0.12777114, -0.22219682, -0.13833815, -0.10939807, 0.09810805, -0.12840253, 0.098413125, -0.010722223, 0.069313444, -0.06343228, -0.15771046, -0.1454823, 0.19771665, 0.17128763, -0.07051951, 0.063626915, 0.039393067, -0.009269024, -0.10510692, 0.08156198, 0.21593237, -0.290512, -0.18898185, -0.27520025, -0.14369138, 0.053033512, 0.14420901, -0.06652331, -0.15160437, 0.015914869, -0.11162756, 0.15226918, -0.21472931, 0.017528474, 0.24219167, -0.33944708, -0.23577109, -0.13113563, 0.10651809, 0.16287434, -0.079916835, 0.19255286, 0.17640108, 0.009361088, -0.2143575, -0.18104285, -0.12440938, -0.08894092, -0.07078475, 0.05203581, 0.038443506, -0.10395843, 0.07959163, 0.06640732, -0.12198597, 0.08121747, -0.0048227906, -0.038868546, -0.1610648, 0.24118418, -0.12840223, -0.20215416, -0.08972484, 0.07467133, -0.18944728, -0.23503411, 0.029762924, -0.21566814, -0.1662085, -0.03975606, 0.2303837, 0.086728394, -0.1613344, 0.2163254, 0.11364627, 0.15941364, 0.23958832, -0.15995878, -0.018839538, -0.16475242, -0.17021734, -0.21001047, 0.22961909, 0.06405848, 0.21960998, 0.10758531, -0.0010896921, -0.077127635, -0.12761372, 0.05872208, 0.16098297, 0.15162432, 0.22768044, -0.059211075, -0.07363051, -0.22728616, 0.0031727552, 0.1753751, 0.03281063, 0.23002619, 0.24725032, -0.15030044, -0.09896094, -0.19753458, -0.05254018, -0.013161871, -0.1297031, -0.15641177, 0.018890262, 0.20801544, 0.11351263, -0.24827458, -0.046892643, -0.18643995, -0.0138824405, 0.13083339, 0.26476023, -0.313082, 0.15374486, -0.15980339, 0.106768906, -0.33135775, -0.04740036, -0.007718731, -0.14564341, -0.25832364, -0.17148928, -0.1547994, -0.21840692, 0.047187388, -0.20392984, 0.012141277, 0.10617991, 0.18795356, -0.023412412, -0.25097027, -0.14849472, -0.153181, 0.13428733, 0.013720036, 0.21154344, 0.16341051, -0.18948859, -0.01553028, 0.1729514, 0.10321631, 0.08145263, -0.1645534, 0.18112977, -0.24372269, -0.07316555, -0.1898838, -0.29636195, -0.013142414, -0.07839069, 0.19545849, -0.29999214, 0.1528301, 0.21358936, -0.11046898, 0.012088895, -0.24543548, -0.18379873, -0.15755822, 0.050426446, -0.22394557, -0.19709015, -0.2231363, -0.22449374, 0.12092614, 0.019105077, -0.17439836, -0.042484105, 0.0728873, 0.112044275, -0.0372622, 0.15828347, -0.13649416, -0.21913564, -0.06592119, -0.018159091, 0.12837607, -0.11327374, 0.14643008, -0.2394889, -0.13751608, -0.24631971, 0.13763583, 0.1723457, -0.04426974, 0.09522122, 0.019142568, -0.07134175, 0.06868458, 0.19062465, -0.14022821, -0.029882371, -0.14857632, -0.051130056, 0.22647965, -0.13197714, 0.2243644, 0.13162738, 0.15783954, 0.11179423, -0.0036569834, -0.12912613, -0.012779474, 0.18702, -0.068936944, -0.19538462, -0.18825835, 0.033484578, -0.20010155, 0.09043282, -0.20199406, -0.012696624, -0.11531359, -0.10965252, -0.1884616, 0.108326554, -0.21115553, 0.037425697, -0.06729227, 0.22239691, -0.17664868, -0.064872265, -0.005872309, 0.1587596, -0.014396608, 0.09422602, -0.18726788, 0.06488853, 0.056684468, 0.27526373, 0.13549858, 0.1517309, 0.23349355, -0.09717493, -0.24398987, -0.13340396, 0.21589547, -0.22899446, -0.21379858, 0.21890743, 0.12642944, -0.098282516, -0.30665413, -0.237404, 0.16864404, -0.16068614, 0.016122151, -0.17093669, -0.15186933, 0.13409966, -0.24405986, -0.14090562, -0.048033893, -0.13062757, -0.03032903, 0.20120685, 0.19568153, 0.09013923, -0.06572885, -0.06826893, -0.105488874, -0.060848586, -0.13054234, 0.1704129, -0.14913678, -0.11999624, 0.1498337, -0.0799886, 0.081760295, 0.15960576, 0.20699108, 0.11185469, -0.0808978, -0.1610093, 0.039127238, -0.0813036, -0.12819791, -0.055671617, 0.17639306, 0.17378123, -0.28922564, 0.080170974, -0.20588994, -0.22979307, 0.027126968, -0.2243374, -0.06612278, 0.12560636, -0.29216635, 0.022554724, -0.100125164, 0.02301803, -0.1443771, 0.21308707, -0.109004855, -0.08467567, -0.02139856, -0.08401405, -0.15923426, 0.03888923, -0.10776275, -0.24842548, 0.07492, -0.119977705, 0.1005543, -0.17194512, -0.06643805, 0.10560615, -0.045939855, 0.10218561, -0.04962515, 0.09861277, 0.07661627, 0.012309994, -0.045054257, -0.04370576, 0.18379158, -0.21396244, -0.2163529, -0.18334508, 0.1857915, -0.10587984, -0.020762801, 0.05075842, 0.24626166, 0.07218218, 0.19863588, -0.097951114, 0.10737115, 0.16276175, 0.15865624, -0.10123098, 0.18914181, -0.107996106, 0.18381101, 0.003295362, 0.04578173, -0.18682122, 0.07258493, -0.092333555, -0.007643044, 0.22392291, 0.2109338, -0.17877442, -0.08722597, 0.1071977, -0.11006069, 0.20794094, 0.21048361, -0.016606152, -0.088647604, -0.15007758, -0.23293287, -0.17030609, 0.03220302, -0.025932908, -0.28060636, 0.07990578, -0.19695073, -0.17679054, 0.03599775, 0.051312733, 0.16936128, 0.18804336, 0.06714517, 0.15775853, -0.0029292703, -0.10029323, 0.05897515, -0.20909788, -0.1781122, 0.023442477, -0.20861804, 0.1348187, -0.18947898, 0.19576007, 0.24123263, -0.11063943, 0.18245822, 0.21601385, 0.23960888, 0.10483706, -0.119943425, 0.13361719, -0.011863828, 0.06783588, -0.27982157, 0.16564064, 0.19012505, 0.26612765, -0.13024455, -0.20189202, 0.12825163, -0.09954682, 0.17378874, -0.21603805, -0.05902101, -0.2600042, 0.19915646, -0.100092955, 0.011140631, -0.018502647, -0.040104054, -0.0221682, -0.1734535, -0.2551283, 0.21523587, 0.058800783, -0.0019450668, 0.13305487, -0.17144525, 0.11229366, 0.0024977922, -0.08036208, -0.3364592, -0.25251958, -0.07001846, 0.01819247, -0.048273325, -0.18595266, 0.077173054, -0.1333918, -0.106441796, 0.044605672, 0.05634004, -0.06600994, 0.20314586, -0.059220314, -0.02387464, -0.018487751, 0.13899899, 0.20363325, -0.116369724, -0.025055707, -0.057437897, 0.08362371, -0.13221252, 0.19810313, -0.03767872, -0.08212334, 0.094830215, 0.23509884, 0.072173536, 0.19707191, -0.15233457, -0.10158777, 0.05698484, 0.025244772, 0.15317178, 0.0809592, 0.03932935, -0.012823939, 0.12637252, 0.02786535, -0.19652992, -0.08125925, 0.017212987, 0.005398035, -0.24930602, -0.18338883, -0.0519861, -0.08510792, -0.1926859, 0.20464104, 0.23437732, 0.1682306, -0.082925975, 0.14843804, -0.21048522, 0.16121042, -0.061004937, 0.12268281, -0.22319996, -0.117016375, 0.0030094981, 0.21577531, -0.14726704, -0.054391682, 0.14988524, 0.17971778, 0.0015050173, 0.20508647, -0.004633844, 0.22167033, -0.026397467, -0.18915921, 0.029480815, 0.18860894, -0.2190659, -0.23414892, 0.033815503, -0.1369524, 0.0666002, 0.12595654, -0.11324257, 0.1912126, -0.06854427, 0.057320714, 0.001891017, -0.08181757, 0.15851456, -0.10932785, -0.21346438, 0.036697865, 0.13068831, -0.1288774, -0.17534149, -0.22631437, 0.21977228, -0.11814183, -0.19629818, -0.11978054, 0.08958012, -0.18133883, 0.16776533, -0.09050604, 0.21348894, 0.109861456, -0.048466265, -0.1375739, 0.16705434, 0.099724345, 0.20712933, -0.041343153, 0.042819332, -0.040566605, 0.015062928, 0.06569825, 0.15237291, 0.058488727, 0.11043635, 0.0548948, -0.2577564, -0.10502653, -0.05157169, -0.05112736, -0.2452278, -0.014734322, -0.2489593, -0.23765033, 0.065157175, -0.04264319, -0.0084252525, -0.049204953, 0.07605195, 0.06184908, 0.16697009, -0.13865018, -0.41898498, 0.022229029, 0.1937552, -0.025375329, -0.17136396, -0.13959809, -0.171443, -0.36142522, -0.331557, -0.2590806, -0.17009819, 0.11493658, -0.22021133, 0.056954622, -0.0049317065, 0.28218, -0.23333363, 0.2673066, 0.10975741, 0.014157474, -0.042854827, -0.16159134, 0.3484001, 0.043543417, 0.12071657, 0.08692237, 0.07300687, 0.19432527, -0.3755485, 0.029953182, -0.070655555, 0.1619511, 0.16069356, -0.06527274, -0.32988718, -0.24518572, -0.34544104, 0.02754432, 0.25394735, -0.3072474, 0.039331943, -0.27698362, 0.32511422, 0.339926, -0.17738284, -0.25528237, -0.28151602, 0.11198687, 0.09781659, -0.17535326, -0.0447109, -0.22477454, -0.22364295, -0.11377039, -0.06961885, 0.28658852, -0.28372633, 0.264353, -0.1704711, 0.009379832, 0.13049455, -0.13727283, 0.0031066546, -0.14176452, -0.2287713, 0.20822996, -0.14226821, 0.122156814, 0.021633096, -0.24634406, -0.21814743, -0.40996522, -0.19932811, 0.067282714, -0.18989448, -0.10856157, -0.1655349, 0.19794354, -0.27442724, 0.10030848, -0.13122126, -0.11790438, -0.31105477, -0.35246658, 0.3277329, 0.28672704, 0.22654244, 0.263599, 0.0680407, 0.30251077, -0.15398873, 0.1947451, 0.16943851, -0.0115404725, 0.07648945, 0.16672686, -0.1997587, -0.28894776, 0.014260471, 0.2971904, 0.23119643, -0.11138889, -0.20881967, 0.1249907, -0.3239331, 0.16318563, -0.30968896, -0.32446668, 0.22620043, 0.10264622, 0.13527314, -0.12907404, 0.1989967, 0.01985959, -0.0347863, -0.10219396, -0.31010726, -0.22764689, -0.32543933, -0.08975637, -0.2797963, -0.26761007, -0.2934314, 0.20222488, 0.056448735, -0.14755535, -0.10128784, 0.23721698, -0.3126444, 0.047150392, -0.18282068, 0.05790344, 0.16173941, 0.08150811, 0.2904506, 0.12028411, 0.12035623, 0.262282, -0.02491647, -0.058370106, -0.20311898, -0.2312739, -0.35382995, 0.18963613, 0.30406716, -0.24179448, -0.26588318, -0.31757092, 0.25913692, 0.10317948, 0.09963733, 0.03846493, 0.030080557, 0.07876075, -0.10827811, 0.3487489, -0.34868848, -0.21320176, 0.08516115, -0.15166737, -0.20212726, 0.22546855, 0.24935785, -0.0044902265, 0.24377891, -0.33703375, 0.2969456, -0.109423086, -0.14455484, -0.26587403, -0.2507144, 0.19682255, 0.13714972, -0.3898, -0.060446445, -0.17158075, 0.31243685, -0.049638376, -0.21028621, 0.26781082, -0.077240914, -0.1513516, -0.008568615, 0.23124358, 0.16442518, 0.19488148, -0.25254542, 0.35716894, 0.07957831, 0.18835184, -0.17927101, 0.21202034, -0.1530594, 0.22868128, -0.35135272, -0.08232697, 0.028658118, -0.0517487, -0.24309072, 0.24166419, -0.133583, -0.090753496, -0.13254787, 0.17208557, 0.040487375, 0.21531013, -0.06943828, 0.28390977, 0.34192625, -0.0314247, 0.09011847, 0.12261209, -0.22095393, -0.28410345, 0.033936232, 0.34233, 0.19717392, 0.2434456, -0.026457518, 0.012924343, -0.055298448, -0.27164274, -0.30347344, 0.022964466, -0.38361356, 0.24587524, 0.111503735, -0.2099252, -0.28456786, 0.01417237, -0.26004562, -0.17057942, -0.14952776, 0.054588623, 0.080625415, 0.1815821, -0.30175334, -0.27808633, -0.16011065, -0.08392016, -0.12071355, 0.19482157, -0.23141769, 0.28381082, 0.1889143, 0.2463992, 0.0023069382, -0.06588182, -0.019739151, -0.10558876, -0.3062582, 0.25754473, 0.22628707, -0.2667667, 0.19510064, 0.2877525, 0.22630724, -0.28233716, -0.01929465, 0.22820333, 0.29189068, 0.17821106, 0.21554473, -0.20932172, -0.2440294, 0.26565668, 0.27013692, 0.25014612, -0.32752612, -0.3095955, -0.27399266, 0.20226786, -0.22795646, 0.34334347, 0.23680973, -0.11541526, 0.15202178, 0.31399125, 0.27863845, 0.10806576, 0.07711169, -0.34203872, -0.12798218, 0.084101014, 0.21857795, -0.049497515, 0.109490186, -0.23360212, 0.32631353, -0.19851989, -0.2211381, -0.33802682, 0.020515125, 0.34344763, 0.30355528, 0.2089202, 0.1777341, 0.2894923, 0.18389437, 0.11919724, -0.13400163, 0.018417967, 0.19642118, -0.23742694, 0.061197504, 0.8019335, 0.17006081, -0.27666497, -0.30809328, -0.34446847, 0.21877207, -0.19645269, -0.15254417, 0.05064688, 0.11697665, 1.3399171, 0.027541459, -0.23331365, -0.060716126, 0.19732209, 0.12092891, -0.22254938, -0.08056507, 0.11233744, -0.04035769, -0.25016406, 0.0736652, 0.0268589, -0.34338638, -0.12577353, 0.13118729, 0.17904413, 0.1690332, -0.122807324, 0.24350674, 0.29915893, 0.11425504, -0.31716195, -0.13051338, -0.14904162, -0.072225705, 0.22106901, -0.30479234, -0.19071676, 0.15891764, 0.13958505, -0.28845388, 0.09986126, -0.30234358, 0.09101021, 0.006620943, 0.2687687, -0.093192905, 0.07962899, -0.2626674, -0.29820758, 0.28237042, -0.058695093, -0.0273211, -0.36997432, -0.052133977, -0.2430467, -0.34903246, 0.2625469, 0.20979705, -0.03934163, 0.10790056, 0.34637132, 0.13856038, -0.16817385, -0.31394926, 0.2733223, -0.34165567, -0.003583312, -0.32607323, -0.19265476, 0.12718916, 0.14301011, 0.25739238, 0.22110176, 0.11840001, 0.12060791, 6.8280075e-05, 0.0138885975, -0.0477832, 0.010748416, -0.3209581, -0.32765043, -0.29777846, 0.11925167, -0.35005826, 0.15117936, 0.2594691, 0.12988494, -0.28718314, 0.155272, -0.2720369, 0.33170304, -0.19760634, -0.06493777, 0.33948538, 0.18615952, -0.096334785, -0.28644076, 0.14080536, 0.15420231, 0.2895852, -0.043325454, -0.16657244, -0.14995453, -0.085618526, 0.012247711, -0.27089658, 0.24844024, 0.27487317, 0.06191668, 0.1966038, -0.030948251, -0.07879868, -0.21361741, -0.05002451, -0.27741173, -0.059219092, 0.28479555, 0.257324, -0.018078566, 0.07834643, -0.03844905, -0.3301146, -0.15983501, 0.30297014, -0.13703163, -0.15633227, 0.066229135, 0.14246342, 0.14075598, 0.18290046, 0.17695042, 0.266736, 0.11982289, -0.2957634, 0.34002843, -0.23387311, 0.23215231, -0.06661436, -0.31873596, -0.31868833, 0.28395173, 0.1639382, 0.33297554, 0.08993018, 0.3495243, -0.17908812, -0.17718771, -0.29752985, -0.19611046, -0.028956145, 0.28197268, -0.1482115, 0.25348303, -0.22568431, -0.09217051, 0.14462298, 0.2631636, 0.3132737, 0.35961303, -0.24128796, 0.24413148, 0.1467703, 0.3601216, -0.35011014, 0.098110214, 0.27442858, 0.16837499, -0.20126417, 0.25819206, 0.2250483, -0.1561013, 0.21402857, -0.34637403, -0.26931718, 0.13840368, -0.32483897, -0.33717856, 0.029356692, -0.27979758, 0.0004041791, -0.20244339, 0.15383837, -0.18568559, 0.26714805, 0.27463278, 0.1717074, -0.16328347, 0.119494736, -0.013559997, -0.27630058, -0.0502147, -0.10355388, -0.37016398, -0.20213763, -0.1573877, 0.2249631, 0.07399258, 0.19248989, 0.1593768, -0.28729594, -0.07484647, -0.16150993, 0.09612126, 0.24802375, 0.31569517, -0.030454634, 0.3169247, -0.025471926, -0.08201003, 0.28856993, 0.27914023, 0.25405824, -0.42490435, 0.17340538, -0.026342988, 0.38730276, 0.38663888, 0.37688708, -0.2590816, -0.39338017, -0.13572133, -0.17190312, -0.049371958, -0.19225991, 0.03743446, 0.3877959, -0.42360383, -0.06900704, -0.03287196, 0.16077688, -0.2611295, -0.093043566, -0.048520923, -0.31415677, 0.0999198, -0.3878026, 0.17895329, 0.2579511, -0.24342835, 0.18005957, -0.020347714, -0.5133753, 0.09705011, 0.4148506, -0.29267085, 0.09178582, 0.10889268, -0.07594085, -0.2770691, -0.3106333, -0.36599565, 0.3955022, -0.07624495, -0.17775549, 0.33481324, 0.10454714, -0.15824676, 6.151199e-05, -0.3502748, -0.48548687, -0.46647918, -0.11152452, 0.059599876, 0.22940564, -0.045656323, 0.38560864, -0.11538613, -0.41707194, -0.3669163, 0.11735954, 0.2240051, -0.27889943, -0.46802342, -0.03612227, 0.09497547, 0.30363703, 0.23319125, -0.08851795, 0.14581108, 0.45954263, 0.10541737, -0.15671217, -0.32603037, 0.05933976, 0.38447738, 0.3551824, -0.006044984, -0.06758392, 0.21756208, 0.34115013, 0.31064963, -0.33899343, 0.42345834, -0.3489362, -0.04111457, -0.013667703, -0.06486881, -0.17483497, -0.5079207, 0.08340812, 0.10235446, 0.05007223, 0.10455465, -0.35440314, -0.26422608, -0.030672062, -0.0108270645, -0.2134093, 0.34998143, 0.08306575, -0.20395339, 0.038062334, -0.12863004, -0.12918127, -0.25139052, -0.043661237, -0.4279821, 0.110388935, -0.19519389, -0.40915245, -0.45747232, -0.064113796, 0.47716868, -0.3537382, -0.31331408, 0.01134858, 0.38404715, 0.09614158, 0.088765144, 0.04674035, 0.621472, 0.5362456, -0.5580523, 0.636913, -0.20200986, -0.0634819, -0.6570382, -0.49352613}

biases: {0.03277383, 0.0, 0.0, -0.043500703, 0.0, -0.0836203, 0.0, 0.0, -0.13905343, -0.07109099, 0.0, 0.0, 0.0, 0.0045859367, 0.0, 0.0, -0.160872, 0.0, 0.0605205, 0.0, 0.07782548, 0.0, 0.0, -0.11528035, 0.0, 0.0, -0.008613166, 0.08488937, -0.11543357, -0.13988654, 0.0, 0.0, 0.0, 0.0, 0.0, -0.125494, 0.0, 0.0, -0.13492459, -0.11964111, 0.0, -0.13291436, 0.0, -0.04094988, -0.036538724, 0.0066587036, 0.0, 0.08009015, 0.0, 0.0, -0.13572326, 0.00029953715, 0.0, 0.0, -0.005083796, -0.10756022, 0.07795904, 0.0, -0.06005452, 0.024844972, 0.0, 0.0, 0.0, -0.101757646, -0.010490127, -0.0712357, -0.06956994, -0.0048666075, -0.025629714, 0.0, 0.0, -0.016117245, -0.03899155, 0.003363142, 0.0, -0.36332813, -0.08654015, 0.0, -0.028899299, -0.070163704, -0.060054585, -0.08405612, -0.060054444, 0.6199053, -0.016513012, -0.023101844, -0.067001335, -0.05548502, -0.017956488, 0.0, 0.0, 0.0, 0.0, -0.09585954, -0.033729557, -0.04736048, -0.013998973, -0.09084185, -0.018963575, -0.13665366, -0.06746512, -0.07963731, -0.080361485, -0.060054574, -0.012403918, -0.12376451, -0.0660124, -0.06173266, -0.28667453, 0.0, -0.10247669, -0.060054496, 0.54647523, 0.0, -0.06129733, -0.13040084, 0.0, -0.05580049, 0.0, -0.060054593, -0.13732153}

Architecture: {1, 64, 32, 16, 8, 1}